digraph Tree {
node [shape=box] ;
0 [label="satisfaction <= 0.465\ngini = 0.5\nsamples = 12749\nvalue = [6374.5, 6374.5]"] ;
1 [label="yearsAtCompany <= 4.5\ngini = 0.281\nsamples = 3565\nvalue = [921.33, 4538.812]"] ;
0 -> 1 [labeldistance=2.5, labelangle=45, headlabel="True"] ;
2 [label="yearsAtCompany <= 2.5\ngini = 0.206\nsamples = 2918\nvalue = [568.941, 4307.776]"] ;
1 -> 2 ;
3 [label="gini = 0.278\nsamples = 238\nvalue = [146.993, 29.405]"] ;
2 -> 3 ;
4 [label="gini = 0.163\nsamples = 2680\nvalue = [421.948, 4278.371]"] ;
2 -> 4 ;
5 [label="satisfaction <= 0.115\ngini = 0.478\nsamples = 647\nvalue = [352.389, 231.036]"] ;
1 -> 5 ;
6 [label="gini = 0.0\nsamples = 76\nvalue = [0.0, 159.625]"] ;
5 -> 6 ;
7 [label="gini = 0.28\nsamples = 571\nvalue = [352.389, 71.411]"] ;
5 -> 7 ;
8 [label="yearsAtCompany <= 4.5\ngini = 0.377\nsamples = 9184\nvalue = [5453.17, 1835.688]"] ;
0 -> 8 [labeldistance=2.5, labelangle=-45, headlabel="False"] ;
9 [label="yearsAtCompany <= 3.5\ngini = 0.085\nsamples = 7498\nvalue = [4849.45, 226.836]"] ;
8 -> 9 ;
10 [label="gini = 0.058\nsamples = 6318\nvalue = [4106.611, 126.02]"] ;
9 -> 10 ;
11 [label="gini = 0.21\nsamples = 1180\nvalue = [742.839, 100.816]"] ;
9 -> 11 ;
12 [label="evaluation <= 0.805\ngini = 0.397\nsamples = 1686\nvalue = [603.72, 1608.852]"] ;
8 -> 12 ;
13 [label="gini = 0.214\nsamples = 651\nvalue = [409.48, 56.709]"] ;
12 -> 13 ;
14 [label="gini = 0.198\nsamples = 1035\nvalue = [194.24, 1552.143]"] ;
12 -> 14 ;
}